{"learner":{"attributes":{"scikit_learn":"{\"_estimator_type\": \"regressor\"}"},"feature_names":["material_encoded","qty"],"feature_types":["int","int"],"gradient_booster":{"model":{"cats":{"enc":[],"feature_segments":[],"sorted_idx":[]},"gbtree_model_param":{"num_parallel_tree":"1","num_trees":"50"},"iteration_indptr":[0,1,2,3,4,5,6,7,8,9,10,11,12,13,14,15,16,17,18,19,20,21,22,23,24,25,26,27,28,29,30,31,32,33,34,35,36,37,38,39,40,41,42,43,44,45,46,47,48,49,50],"tree_info":[0,0,0,0,0,0,0,0,0,0,0,0,0,0,0,0,0,0,0,0,0,0,0,0,0,0,0,0,0,0,0,0,0,0,0,0,0,0,0,0,0,0,0,0,0,0,0,0,0,0],"trees":[{"base_weights":[-0E0,-5.2296665E3,1.5689E4,-2.0276666E3,-1.7564572E3,8.1762754E3,-1.1162251E3,-9.8872504E2,7.6275E1],"categories":[],"categories_nodes":[],"categories_segments":[],"categories_sizes":[],"default_left":[0,0,0,0,0,0,0,0,0],"id":0,"left_children":[1,3,5,7,-1,-1,-1,-1,-1],"loss_changes":[9.845788E8,6.145056E6,7.7484205E8,9.518926E6,0E0,0E0,0E0,0E0,0E0],"parents":[2147483647,0,0,1,1,2,2,3,3],"right_children":[2,4,6,8,-1,-1,-1,-1,-1],"split_conditions":[8E0,2E0,9E0,1E0,-1.7564572E3,8.1762754E3,-1.1162251E3,-9.8872504E2,7.6275E1],"split_indices":[0,0,0,0,0,0,0,0,0],"split_type":[0,0,0,0,0,0,0,0,0],"sum_hessian":[1E1,8E0,2E0,2E0,6E0,1E0,1E0,1E0,1E0],"tree_param":{"num_deleted":"0","num_feature":"2","num_nodes":"9","size_leaf_vector":"1"}},{"base_weights":[3.9919492E2,-3.957312E3,1.333565E4,-1.7235166E3,-1.3047969E3,6.9498345E3,-9.4879126E2,-8.4041626E2,6.483377E1],"categories":[],"categories_nodes":[],"categories_segments":[],"categories_sizes":[],"default_left":[0,0,0,0,0,0,0,0,0],"id":1,"left_children":[1,3,5,7,-1,-1,-1,-1,-1],"loss_changes":[6.727087E8,3.84912E5,5.598235E8,6.877423E6,0E0,0E0,0E0,0E0,0E0],"parents":[2147483647,0,0,1,1,2,2,3,3],"right_children":[2,4,6,8,-1,-1,-1,-1,-1],"split_conditions":[8E0,2E0,9E0,1E0,-1.3047969E3,6.9498345E3,-9.4879126E2,-8.4041626E2,6.483377E1],"split_indices":[0,0,0,0,0,0,0,0,0],"split_type":[0,0,0,0,0,0,0,0,0],"sum_hessian":[1E1,8E0,2E0,2E0,6E0,1E0,1E0,1E0,1E0],"tree_param":{"num_deleted":"0","num_feature":"2","num_nodes":"9","size_leaf_vector":"1"}},{"base_weights":[6.358603E2,-9.003815E2,1.1335303E4,5.907359E3,-8.0647253E2],"categories":[],"categories_nodes":[],"categories_segments":[],"categories_sizes":[],"default_left":[0,0,0,0,0],"id":2,"left_children":[1,-1,3,-1,-1],"loss_changes":[4.6208842E8,0E0,4.0447242E8,0E0,0E0],"parents":[2147483647,0,0,2,2],"right_children":[2,-1,4,-1,-1],"split_conditions":[8E0,-9.003815E2,9E0,5.907359E3,-8.0647253E2],"split_indices":[0,0,0,0,0],"split_type":[0,0,0,0,0],"sum_hessian":[1E1,8E0,2E0,1E0,1E0],"tree_param":{"num_deleted":"0","num_feature":"2","num_nodes":"5","size_leaf_vector":"1"}},{"base_weights":[8.269661E2,-2.2009326E3,9.635007E3,-8.6473486E2,-7.377509E2,5.021255E3,-6.8550165E2,-5.792966E2,1.9016588E2],"categories":[],"categories_nodes":[],"categories_segments":[],"categories_sizes":[],"default_left":[0,0,0,0,0,0,0,0,0],"id":3,"left_children":[1,3,5,7,-1,-1,-1,-1,-1],"loss_changes":[3.145744E8,9.78972E5,2.9223126E8,6.017758E6,0E0,0E0,0E0,0E0,0E0],"parents":[2147483647,0,0,1,1,2,2,3,3],"right_children":[2,4,6,8,-1,-1,-1,-1,-1],"split_conditions":[8E0,2E0,9E0,1E0,-7.377509E2,5.021255E3,-6.8550165E2,-5.792966E2,1.9016588E2],"split_indices":[0,0,0,0,0,0,0,0,0],"split_type":[0,0,0,0,0,0,0,0,0],"sum_hessian":[1E1,8E0,2E0,2E0,6E0,1E0,1E0,1E0,1E0],"tree_param":{"num_deleted":"0","num_feature":"2","num_nodes":"9","size_leaf_vector":"1"}},{"base_weights":[8.70592E2,-1.6658618E3,8.189756E3,-7.350247E2,-5.480436E2,4.268067E3,-5.826764E2,-4.9240213E2,1.6164098E2],"categories":[],"categories_nodes":[],"categories_segments":[],"categories_sizes":[],"default_left":[0,0,0,0,0,0,0,0,0],"id":4,"left_children":[1,3,5,7,-1,-1,-1,-1,-1],"loss_changes":[2.1785494E8,5.612E3,2.1113712E8,4.34783E6,0E0,0E0,0E0,0E0,0E0],"parents":[2147483647,0,0,1,1,2,2,3,3],"right_children":[2,4,6,8,-1,-1,-1,-1,-1],"split_conditions":[8E0,2E0,9E0,1E0,-5.480436E2,4.268067E3,-5.826764E2,-4.9240213E2,1.6164098E2],"split_indices":[0,0,0,0,0,0,0,0,0],"split_type":[0,0,0,0,0,0,0,0,0],"sum_hessian":[1E1,8E0,2E0,2E0,6E0,1E0,1E0,1E0,1E0],"tree_param":{"num_deleted":"0","num_feature":"2","num_nodes":"9","size_leaf_vector":"1"}},{"base_weights":[8.645585E2,-3.791245E2,6.961293E3,3.6278567E3,-4.952749E2],"categories":[],"categories_nodes":[],"categories_segments":[],"categories_sizes":[],"default_left":[0,0,0,0,0],"id":5,"left_children":[1,-1,3,-1,-1],"loss_changes":[1.5153026E8,0E0,1.5254654E8,0E0,0E0],"parents":[2147483647,0,0,2,2],"right_children":[2,-1,4,-1,-1],"split_conditions":[8E0,-3.791245E2,9E0,3.6278567E3,-4.952749E2],"split_indices":[0,0,0,0,0],"split_type":[0,0,0,0,0],"sum_hessian":[1E1,8E0,2E0,1E0,1E0],"tree_param":{"num_deleted":"0","num_feature":"2","num_nodes":"5","size_leaf_vector":"1"}},{"base_weights":[8.555054E2,-9.267488E2,5.917099E3,-3.720214E2,-3.0962894E2,3.0836785E3,-4.2098367E2,-3.6167313E2,1.9426349E2],"categories":[],"categories_nodes":[],"categories_segments":[],"categories_sizes":[],"default_left":[0,0,0,0,0,0,0,0,0],"id":6,"left_children":[1,3,5,7,-1,-1,-1,-1,-1],"loss_changes":[1.04715176E8,1.41991E5,1.102149E8,3.3302612E6,0E0,0E0,0E0,0E0,0E0],"parents":[2147483647,0,0,1,1,2,2,3,3],"right_children":[2,4,6,8,-1,-1,-1,-1,-1],"split_conditions":[8E0,2E0,9E0,1E0,-3.0962894E2,3.0836785E3,-4.2098367E2,-3.6167313E2,1.9426349E2],"split_indices":[0,0,0,0,0,0,0,0,0],"split_type":[0,0,0,0,0,0,0,0,0],"sum_hessian":[1E1,8E0,2E0,2E0,6E0,1E0,1E0,1E0,1E0],"tree_param":{"num_deleted":"0","num_feature":"2","num_nodes":"9","size_leaf_vector":"1"}},{"base_weights":[7.975496E2,-7.0172845E2,5.029534E3,-7.450299E2,-5.3297535E1,2.6211265E3,-3.5783612E2,-3.1621826E2,-2.5057924E2,-3.0742215E2,1.6512393E2],"categories":[],"categories_nodes":[],"categories_segments":[],"categories_sizes":[],"default_left":[0,0,0,0,0,0,0,0,0,0,0],"id":7,"left_children":[1,3,5,7,-1,-1,-1,9,-1,-1,-1],"loss_changes":[7.33235E7,7.1876E4,7.9630264E7,4.54215E4,0E0,0E0,0E0,2.406113E6,0E0,0E0,0E0],"parents":[2147483647,0,0,1,1,2,2,3,3,7,7],"right_children":[2,4,6,8,-1,-1,-1,10,-1,-1,-1],"split_conditions":[8E0,7E0,9E0,2E0,-5.3297535E1,2.6211265E3,-3.5783612E2,1E0,-2.5057924E2,-3.0742215E2,1.6512393E2],"split_indices":[0,0,0,0,0,0,0,0,0,0,0],"split_type":[0,0,0,0,0,0,0,0,0,0,0],"sum_hessian":[1E1,8E0,2E0,7E0,1E0,1E0,1E0,2E0,5E0,1E0,1E0],"tree_param":{"num_deleted":"0","num_feature":"2","num_nodes":"11","size_leaf_vector":"1"}},{"base_weights":[7.234771E2,-5.407849E2,4.2751045E3,-2.6130884E2,-3.906257E2,2.2279578E3,-3.0416068E2,1.4035533E2,-5.8010114E2,-2.2719098E2,-2.578737E2,7.428935E1,-5.0891904E2,-1.8371066E2,-4.5302914E1],"categories":[],"categories_nodes":[],"categories_segments":[],"categories_sizes":[],"default_left":[0,0,0,0,0,0,0,0,0,0,0,0,0,0,0],"id":8,"left_children":[1,3,5,-1,7,-1,-1,-1,9,-1,11,-1,13,-1,-1],"loss_changes":[5.1703976E7,1.06057E5,5.753287E7,0E0,1.572683E6,0E0,0E0,0E0,2.0440675E5,0E0,6.3364275E5,0E0,1.8603312E4,0E0,0E0],"parents":[2147483647,0,0,1,1,2,2,4,4,8,8,10,10,12,12],"right_children":[2,4,6,-1,8,-1,-1,-1,10,-1,12,-1,14,-1,-1],"split_conditions":[8E0,1E0,9E0,-2.6130884E2,2E0,2.2279578E3,-3.0416068E2,1.4035533E2,5E0,-2.2719098E2,6E0,7.428935E1,7E0,-1.8371066E2,-4.5302914E1],"split_indices":[0,0,0,0,0,0,0,0,0,0,0,0,0,0,0],"split_type":[0,0,0,0,0,0,0,0,0,0,0,0,0,0,0],"sum_hessian":[1E1,8E0,2E0,1E0,7E0,1E0,1E0,1E0,6E0,3E0,3E0,1E0,2E0,1E0,1E0],"tree_param":{"num_deleted":"0","num_feature":"2","num_nodes":"15","size_leaf_vector":"1"}},{"base_weights":[6.356094E2,-4.3442374E2,3.6338389E3,-2.221125E2,-3.0363297E2,1.8937642E3,-2.585366E2,1.1930201E2,-4.6063007E2,-1.76073E2,-2.1919263E2,6.3145954E1,-4.3258118E2,-1.5615405E2,-3.8507484E1],"categories":[],"categories_nodes":[],"categories_segments":[],"categories_sizes":[],"default_left":[0,0,0,0,0,0,0,0,0,0,0,0,0,0,0],"id":9,"left_children":[1,3,5,-1,7,-1,-1,-1,9,-1,11,-1,13,-1,-1],"loss_changes":[3.686888E7,1.3533812E5,4.15675E7,0E0,1.0640045E6,0E0,0E0,0E0,8.4774625E4,0E0,4.5780694E5,0E0,1.34408125E4,0E0,0E0],"parents":[2147483647,0,0,1,1,2,2,4,4,8,8,10,10,12,12],"right_children":[2,4,6,-1,8,-1,-1,-1,10,-1,12,-1,14,-1,-1],"split_conditions":[8E0,1E0,9E0,-2.221125E2,2E0,1.8937642E3,-2.585366E2,1.1930201E2,5E0,-1.76073E2,6E0,6.3145954E1,7E0,-1.5615405E2,-3.8507484E1],"split_indices":[0,0,0,0,0,0,0,0,0,0,0,0,0,0,0],"split_type":[0,0,0,0,0,0,0,0,0,0,0,0,0,0,0],"sum_hessian":[1E1,8E0,2E0,1E0,7E0,1E0,1E0,1E0,6E0,3E0,3E0,1E0,2E0,1E0,1E0],"tree_param":{"num_deleted":"0","num_feature":"2","num_nodes":"15","size_leaf_vector":"1"}},{"base_weights":[5.562744E2,-3.4969653E2,3.0887625E3,-1.8879562E2,-2.3607893E2,1.6096993E3,-2.1975609E2,1.0140667E2,-3.6638226E2,-1.3645657E2,-1.8631375E2,5.3674057E1,-3.67694E2,-1.3273094E2,-3.273137E1],"categories":[],"categories_nodes":[],"categories_segments":[],"categories_sizes":[],"default_left":[0,0,0,0,0,0,0,0,0,0,0,0,0,0,0],"id":10,"left_children":[1,3,5,-1,7,-1,-1,-1,9,-1,11,-1,13,-1,-1],"loss_changes":[2.6318098E7,1.3736112E5,3.003251E7,0E0,7.2230375E5,0E0,0E0,0E0,2.6772562E4,0E0,3.307655E5,0E0,9.710969E3,0E0,0E0],"parents":[2147483647,0,0,1,1,2,2,4,4,8,8,10,10,12,12],"right_children":[2,4,6,-1,8,-1,-1,-1,10,-1,12,-1,14,-1,-1],"split_conditions":[8E0,1E0,9E0,-1.8879562E2,2E0,1.6096993E3,-2.1975609E2,1.0140667E2,5E0,-1.3645657E2,6E0,5.3674057E1,7E0,-1.3273094E2,-3.273137E1],"split_indices":[0,0,0,0,0,0,0,0,0,0,0,0,0,0,0],"split_type":[0,0,0,0,0,0,0,0,0,0,0,0,0,0,0],"sum_hessian":[1E1,8E0,2E0,1E0,7E0,1E0,1E0,1E0,6E0,3E0,3E0,1E0,2E0,1E0,1E0],"tree_param":{"num_deleted":"0","num_feature":"2","num_nodes":"15","size_leaf_vector":"1"}},{"base_weights":[4.852384E2,-2.8208023E2,2.6254482E3,-1.6047627E2,-1.8361005E2,1.3682444E3,-1.8679266E2,8.6195656E1,-2.9193115E2,-1.0575385E2,-1.583667E2,4.5622944E1,-3.1253992E2,-1.128213E2,-2.7821669E1],"categories":[],"categories_nodes":[],"categories_segments":[],"categories_sizes":[],"default_left":[0,0,0,0,0,0,0,0,0,0,0,0,0,0,0],"id":11,"left_children":[1,3,5,-1,7,-1,-1,-1,9,-1,11,-1,13,-1,-1],"loss_changes":[1.8805038E7,1.25858625E5,2.169849E7,0E0,4.9196962E5,0E0,0E0,0E0,8.14625E2,0E0,2.3897805E5,0E0,7.0161875E3,0E0,0E0],"parents":[2147483647,0,0,1,1,2,2,4,4,8,8,10,10,12,12],"right_children":[2,4,6,-1,8,-1,-1,-1,10,-1,12,-1,14,-1,-1],"split_conditions":[8E0,1E0,9E0,-1.6047627E2,2E0,1.3682444E3,-1.8679266E2,8.6195656E1,5E0,-1.0575385E2,6E0,4.5622944E1,7E0,-1.128213E2,-2.7821669E1],"split_indices":[0,0,0,0,0,0,0,0,0,0,0,0,0,0,0],"split_type":[0,0,0,0,0,0,0,0,0,0,0,0,0,0,0],"sum_hessian":[1E1,8E0,2E0,1E0,7E0,1E0,1E0,1E0,6E0,3E0,3E0,1E0,2E0,1E0,1E0],"tree_param":{"num_deleted":"0","num_feature":"2","num_nodes":"15","size_leaf_vector":"1"}},{"base_weights":[4.2206647E2,-2.2801779E2,2.2316304E3,-1.3640483E2,-1.4284933E2,1.1630074E3,-1.5877376E2,7.326629E1,-6.991014E1],"categories":[],"categories_nodes":[],"categories_segments":[],"categories_sizes":[],"default_left":[0,0,0,0,0,0,0,0,0],"id":12,"left_children":[1,3,5,-1,7,-1,-1,-1,-1],"loss_changes":[1.3448911E7,1.0879125E5,1.5677151E7,0E0,3.3617353E5,0E0,0E0,0E0,0E0],"parents":[2147483647,0,0,1,1,2,2,4,4],"right_children":[2,4,6,-1,8,-1,-1,-1,-1],"split_conditions":[8E0,1E0,9E0,-1.3640483E2,2E0,1.1630074E3,-1.5877376E2,7.326629E1,-6.991014E1],"split_indices":[0,0,0,0,0,0,0,0,0],"split_type":[0,0,0,0,0,0,0,0,0],"sum_hessian":[1E1,8E0,2E0,1E0,7E0,1E0,1E0,1E0,6E0],"tree_param":{"num_deleted":"0","num_feature":"2","num_nodes":"9","size_leaf_vector":"1"}},{"base_weights":[3.7464514E2,-1.7439561E2,1.8968857E3,-1.1594411E2,-9.9574974E1,9.885563E2,-1.349577E2,6.227637E1,-1.731108E2,-7.437062E1,-9.361388E1,6.3029034E1,-2.1905217E2,-2.0902964E1,4.926603E1,-8.541158E1,-1.3161897E1],"categories":[],"categories_nodes":[],"categories_segments":[],"categories_sizes":[],"default_left":[0,0,0,0,0,0,0,0,0,0,0,0,0,0,0,0,0],"id":13,"left_children":[1,3,5,-1,7,-1,-1,-1,9,-1,11,13,15,-1,-1,-1,-1],"loss_changes":[9.524301E6,1.0433109E5,1.1326742E7,0E0,2.1663547E5,0E0,0E0,0E0,1.8412672E4,0E0,1.1205174E5,5.172814E4,2.2012297E4,0E0,0E0,0E0,0E0],"parents":[2147483647,0,0,1,1,2,2,4,4,8,8,10,10,11,11,12,12],"right_children":[2,4,6,-1,8,-1,-1,-1,10,-1,12,14,16,-1,-1,-1,-1],"split_conditions":[8E0,1E0,9E0,-1.1594411E2,2E0,9.885563E2,-1.349577E2,6.227637E1,4E0,-7.437062E1,6E0,5E0,7E0,-2.0902964E1,4.926603E1,-8.541158E1,-1.3161897E1],"split_indices":[0,0,0,0,0,0,0,0,0,0,0,0,0,0,0,0,0],"split_type":[0,0,0,0,0,0,0,0,0,0,0,0,0,0,0,0,0],"sum_hessian":[1E1,8E0,2E0,1E0,7E0,1E0,1E0,1E0,6E0,2E0,4E0,2E0,2E0,1E0,1E0,1E0,1E0],"tree_param":{"num_deleted":"0","num_feature":"2","num_nodes":"17","size_leaf_vector":"1"}},{"base_weights":[3.2182898E2,-1.4410457E2,1.6123534E3,-9.85525E1,-7.999057E1,8.402731E2,-1.1471404E2,5.2934914E1,-1.41832E2,-5.94965E1,-7.95718E1,5.3574688E1,-1.8619435E2,-1.776752E1,4.187613E1,-7.2599846E1,-1.1187616E1],"categories":[],"categories_nodes":[],"categories_segments":[],"categories_sizes":[],"default_left":[0,0,0,0,0,0,0,0,0,0,0,0,0,0,0,0,0],"id":14,"left_children":[1,3,5,-1,7,-1,-1,-1,9,-1,11,13,15,-1,-1,-1,-1],"loss_changes":[6.846632E6,8.012819E4,8.183574E6,0E0,1.5189528E5,0E0,0E0,0E0,8.838594E3,0E0,8.095739E4,3.7373594E4,1.5903883E4,0E0,0E0,0E0,0E0],"parents":[2147483647,0,0,1,1,2,2,4,4,8,8,10,10,11,11,12,12],"right_children":[2,4,6,-1,8,-1,-1,-1,10,-1,12,14,16,-1,-1,-1,-1],"split_conditions":[8E0,1E0,9E0,-9.85525E1,2E0,8.402731E2,-1.1471404E2,5.2934914E1,4E0,-5.94965E1,6E0,5E0,7E0,-1.776752E1,4.187613E1,-7.2599846E1,-1.1187616E1],"split_indices":[0,0,0,0,0,0,0,0,0,0,0,0,0,0,0,0,0],"split_type":[0,0,0,0,0,0,0,0,0,0,0,0,0,0,0,0,0],"sum_hessian":[1E1,8E0,2E0,1E0,7E0,1E0,1E0,1E0,6E0,2E0,4E0,2E0,2E0,1E0,1E0,1E0,1E0],"tree_param":{"num_deleted":"0","num_feature":"2","num_nodes":"17","size_leaf_vector":"1"}},{"base_weights":[2.7625897E2,-1.1918354E2,1.3705002E3,-8.376962E1,-6.427347E1,7.1423206E2,-9.7506935E1,4.4994656E1,-1.1630744E2,-1.5865733E2,-6.7636024E1,-1.1322899E1,-6.0072903E1,4.5538494E1,-1.582652E2,-1.5102393E1,3.5594715E1,-6.170987E1,-9.509473E0],"categories":[],"categories_nodes":[],"categories_segments":[],"categories_sizes":[],"default_left":[0,0,0,0,0,0,0,0,0,0,0,0,0,0,0,0,0,0,0],"id":15,"left_children":[1,3,5,-1,7,-1,-1,-1,9,11,13,-1,-1,15,17,-1,-1,-1,-1],"loss_changes":[4.923146E6,6.1147258E4,5.9126315E6,0E0,1.06632625E5,0E0,0E0,0E0,3.6976562E3,7.5271406E3,5.8491727E4,0E0,0E0,2.7002424E4,1.1490555E4,0E0,0E0,0E0,0E0],"parents":[2147483647,0,0,1,1,2,2,4,4,8,8,9,9,10,10,13,13,14,14],"right_children":[2,4,6,-1,8,-1,-1,-1,10,12,14,-1,-1,16,18,-1,-1,-1,-1],"split_conditions":[8E0,1E0,9E0,-8.376962E1,2E0,7.1423206E2,-9.7506935E1,4.4994656E1,4E0,3E0,6E0,-1.1322899E1,-6.0072903E1,5E0,7E0,-1.5102393E1,3.5594715E1,-6.170987E1,-9.509473E0],"split_indices":[0,0,0,0,0,0,0,0,0,0,0,0,0,0,0,0,0,0,0],"split_type":[0,0,0,0,0,0,0,0,0,0,0,0,0,0,0,0,0,0,0],"sum_hessian":[1E1,8E0,2E0,1E0,7E0,1E0,1E0,1E0,6E0,2E0,4E0,1E0,1E0,2E0,2E0,1E0,1E0,1E0,1E0],"tree_param":{"num_deleted":"0","num_feature":"2","num_nodes":"19","size_leaf_vector":"1"}},{"base_weights":[2.348203E2,-1.0130599E2,1.1649258E3,-7.120417E1,-5.4632435E1,6.070975E2,-8.288089E1,3.824546E1,-9.886131E1,-1.3485872E2,-5.749061E1,-9.624463E0,-5.1061966E1,3.870772E1,-1.345254E2,-1.283703E1,3.0255507E1,-5.245339E1,-8.083045E0],"categories":[],"categories_nodes":[],"categories_segments":[],"categories_sizes":[],"default_left":[0,0,0,0,0,0,0,0,0,0,0,0,0,0,0,0,0,0,0],"id":16,"left_children":[1,3,5,-1,7,-1,-1,-1,9,11,13,-1,-1,15,17,-1,-1,-1,-1],"loss_changes":[3.5569758E6,4.417889E4,4.271879E6,0E0,7.704207E4,0E0,0E0,0E0,2.6715625E3,5.4383594E3,4.2260266E4,0E0,0E0,1.9509246E4,8.301934E3,0E0,0E0,0E0,0E0],"parents":[2147483647,0,0,1,1,2,2,4,4,8,8,9,9,10,10,13,13,14,14],"right_children":[2,4,6,-1,8,-1,-1,-1,10,12,14,-1,-1,16,18,-1,-1,-1,-1],"split_conditions":[8E0,1E0,9E0,-7.120417E1,2E0,6.070975E2,-8.288089E1,3.824546E1,4E0,3E0,6E0,-9.624463E0,-5.1061966E1,5E0,7E0,-1.283703E1,3.0255507E1,-5.245339E1,-8.083045E0],"split_indices":[0,0,0,0,0,0,0,0,0,0,0,0,0,0,0,0,0,0,0],"split_type":[0,0,0,0,0,0,0,0,0,0,0,0,0,0,0,0,0,0,0],"sum_hessian":[1E1,8E0,2E0,1E0,7E0,1E0,1E0,1E0,6E0,2E0,4E0,1E0,1E0,2E0,2E0,1E0,1E0,1E0,1E0],"tree_param":{"num_deleted":"0","num_feature":"2","num_nodes":"19","size_leaf_vector":"1"}},{"base_weights":[1.9959723E2,-8.611011E1,9.901868E2,-6.0523537E1,-4.643759E1,5.1603284E2,-7.044875E1,3.250862E1,-8.403212E1,-1.1462992E2,-4.8867016E1,-8.180796E0,-4.340267E1,3.290157E1,-1.14346596E2,-1.0911475E1,2.5717182E1,-4.4585377E1,-6.8705935E0],"categories":[],"categories_nodes":[],"categories_segments":[],"categories_sizes":[],"default_left":[0,0,0,0,0,0,0,0,0,0,0,0,0,0,0,0,0,0,0],"id":17,"left_children":[1,3,5,-1,7,-1,-1,-1,9,11,13,-1,-1,15,17,-1,-1,-1,-1],"loss_changes":[2.5699148E6,3.1919234E4,3.0864322E6,0E0,5.566285E4,0E0,0E0,0E0,1.9302031E3,3.929211E3,3.0533047E4,0E0,0E0,1.4095431E4,5.9981367E3,0E0,0E0,0E0,0E0],"parents":[2147483647,0,0,1,1,2,2,4,4,8,8,9,9,10,10,13,13,14,14],"right_children":[2,4,6,-1,8,-1,-1,-1,10,12,14,-1,-1,16,18,-1,-1,-1,-1],"split_conditions":[8E0,1E0,9E0,-6.0523537E1,2E0,5.1603284E2,-7.044875E1,3.250862E1,4E0,3E0,6E0,-8.180796E0,-4.340267E1,5E0,7E0,-1.0911475E1,2.5717182E1,-4.4585377E1,-6.8705935E0],"split_indices":[0,0,0,0,0,0,0,0,0,0,0,0,0,0,0,0,0,0,0],"split_type":[0,0,0,0,0,0,0,0,0,0,0,0,0,0,0,0,0,0,0],"sum_hessian":[1E1,8E0,2E0,1E0,7E0,1E0,1E0,1E0,6E0,2E0,4E0,1E0,1E0,2E0,2E0,1E0,1E0,1E0,1E0],"tree_param":{"num_deleted":"0","num_feature":"2","num_nodes":"19","size_leaf_vector":"1"}},{"base_weights":[1.6965778E2,-7.31936E1,8.416593E2,-5.1445004E1,-3.947197E1,4.3862814E2,-5.9881435E1,2.7632301E1,-7.14273E1,-9.743543E1,-4.1536957E1,-6.9536777E0,-3.689227E1,2.796634E1,-9.71946E1,-9.274755E0,2.1859608E1,-3.7897568E1,-5.8400025E0],"categories":[],"categories_nodes":[],"categories_segments":[],"categories_sizes":[],"default_left":[0,0,0,0,0,0,0,0,0,0,0,0,0,0,0,0,0,0,0],"id":18,"left_children":[1,3,5,-1,7,-1,-1,-1,9,11,13,-1,-1,15,17,-1,-1,-1,-1],"loss_changes":[1.8567656E6,2.3061625E4,2.2299492E6,0E0,4.0216367E4,0E0,0E0,0E0,1.3945742E3,2.8388555E3,2.2060123E4,0E0,0E0,1.0183951E4,4.333658E3,0E0,0E0,0E0,0E0],"parents":[2147483647,0,0,1,1,2,2,4,4,8,8,9,9,10,10,13,13,14,14],"right_children":[2,4,6,-1,8,-1,-1,-1,10,12,14,-1,-1,16,18,-1,-1,-1,-1],"split_conditions":[8E0,1E0,9E0,-5.1445004E1,2E0,4.3862814E2,-5.9881435E1,2.7632301E1,4E0,3E0,6E0,-6.9536777E0,-3.689227E1,5E0,7E0,-9.274755E0,2.1859608E1,-3.7897568E1,-5.8400025E0],"split_indices":[0,0,0,0,0,0,0,0,0,0,0,0,0,0,0,0,0,0,0],"split_type":[0,0,0,0,0,0,0,0,0,0,0,0,0,0,0,0,0,0,0],"sum_hessian":[1E1,8E0,2E0,1E0,7E0,1E0,1E0,1E0,6E0,2E0,4E0,1E0,1E0,2E0,2E0,1E0,1E0,1E0,1E0],"tree_param":{"num_deleted":"0","num_feature":"2","num_nodes":"19","size_leaf_vector":"1"}},{"base_weights":[1.4420903E2,-6.2214577E1,7.1541016E2,-4.372826E1,-3.355118E1,3.728338E2,-5.089922E1,2.3487452E1,-6.0713207E1,-8.282012E1,-3.530642E1,-5.9106264E0,-3.1358429E1,2.3771383E1,-8.261542E1,-7.883542E0,1.8580666E1,-3.2212933E1,-4.964008E0],"categories":[],"categories_nodes":[],"categories_segments":[],"categories_sizes":[],"default_left":[0,0,0,0,0,0,0,0,0,0,0,0,0,0,0,0,0,0,0],"id":19,"left_children":[1,3,5,-1,7,-1,-1,-1,9,11,13,-1,-1,15,17,-1,-1,-1,-1],"loss_changes":[1.3415122E6,1.6662031E4,1.6111375E6,0E0,2.905632E4,0E0,0E0,0E0,1.0075781E3,2.0510703E3,1.5938441E4,0E0,0E0,7.357905E3,3.1310605E3,0E0,0E0,0E0,0E0],"parents":[2147483647,0,0,1,1,2,2,4,4,8,8,9,9,10,10,13,13,14,14],"right_children":[2,4,6,-1,8,-1,-1,-1,10,12,14,-1,-1,16,18,-1,-1,-1,-1],"split_conditions":[8E0,1E0,9E0,-4.372826E1,2E0,3.728338E2,-5.089922E1,2.3487452E1,4E0,3E0,6E0,-5.9106264E0,-3.1358429E1,5E0,7E0,-7.883542E0,1.8580666E1,-3.2212933E1,-4.964008E0],"split_indices":[0,0,0,0,0,0,0,0,0,0,0,0,0,0,0,0,0,0,0],"split_type":[0,0,0,0,0,0,0,0,0,0,0,0,0,0,0,0,0,0,0],"sum_hessian":[1E1,8E0,2E0,1E0,7E0,1E0,1E0,1E0,6E0,2E0,4E0,1E0,1E0,2E0,2E0,1E0,1E0,1E0,1E0],"tree_param":{"num_deleted":"0","num_feature":"2","num_nodes":"19","size_leaf_vector":"1"}},{"base_weights":[1.2257784E2,-5.2882378E1,6.0809924E2,-3.716902E1,-2.8518494E1,3.16909E2,-4.3264336E1,1.9964355E1,-5.1606236E1,-7.03971E1,-3.0010468E1,-5.0240345E0,-2.6654665E1,2.0205667E1,-7.0223114E1,-6.70101E0,1.5793561E1,-2.7380993E1,-4.2194095E0],"categories":[],"categories_nodes":[],"categories_segments":[],"categories_sizes":[],"default_left":[0,0,0,0,0,0,0,0,0,0,0,0,0,0,0,0,0,0,0],"id":20,"left_children":[1,3,5,-1,7,-1,-1,-1,9,11,13,-1,-1,15,17,-1,-1,-1,-1],"loss_changes":[9.6924425E5,1.203832E4,1.1640482E6,0E0,2.0993225E4,0E0,0E0,0E0,7.2797266E2,1.4818984E3,1.1515522E4,0E0,0E0,5.316084E3,2.2621904E3,0E0,0E0,0E0,0E0],"parents":[2147483647,0,0,1,1,2,2,4,4,8,8,9,9,10,10,13,13,14,14],"right_children":[2,4,6,-1,8,-1,-1,-1,10,12,14,-1,-1,16,18,-1,-1,-1,-1],"split_conditions":[8E0,1E0,9E0,-3.716902E1,2E0,3.16909E2,-4.3264336E1,1.9964355E1,4E0,3E0,6E0,-5.0240345E0,-2.6654665E1,5E0,7E0,-6.70101E0,1.5793561E1,-2.7380993E1,-4.2194095E0],"split_indices":[0,0,0,0,0,0,0,0,0,0,0,0,0,0,0,0,0,0,0],"split_type":[0,0,0,0,0,0,0,0,0,0,0,0,0,0,0,0,0,0,0],"sum_hessian":[1E1,8E0,2E0,1E0,7E0,1E0,1E0,1E0,6E0,2E0,4E0,1E0,1E0,2E0,2E0,1E0,1E0,1E0,1E0],"tree_param":{"num_deleted":"0","num_feature":"2","num_nodes":"19","size_leaf_vector":"1"}},{"base_weights":[1.0419106E2,-4.495002E1,5.16884E2,-3.159366E1,-2.4240725E1,2.6937247E2,-3.6774685E1,1.6969704E1,-4.3865307E1,-5.9837536E1,-2.5508907E1,-4.270427E0,-2.2656464E1,1.7174814E1,-5.9689663E1,-5.6958575E0,1.3424524E1,-2.3273844E1,-3.5865052E0],"categories":[],"categories_nodes":[],"categories_segments":[],"categories_sizes":[],"default_left":[0,0,0,0,0,0,0,0,0,0,0,0,0,0,0,0,0,0,0],"id":21,"left_children":[1,3,5,-1,7,-1,-1,-1,9,11,13,-1,-1,15,17,-1,-1,-1,-1],"loss_changes":[7.0027806E5,8.69768E3,8.4102406E5,0E0,1.5167604E4,0E0,0E0,0E0,5.25958E2,1.0706729E3,8.319969E3,0E0,0E0,3.8408691E3,1.6344277E3,0E0,0E0,0E0,0E0],"parents":[2147483647,0,0,1,1,2,2,4,4,8,8,9,9,10,10,13,13,14,14],"right_children":[2,4,6,-1,8,-1,-1,-1,10,12,14,-1,-1,16,18,-1,-1,-1,-1],"split_conditions":[8E0,1E0,9E0,-3.159366E1,2E0,2.6937247E2,-3.6774685E1,1.6969704E1,4E0,3E0,6E0,-4.270427E0,-2.2656464E1,5E0,7E0,-5.6958575E0,1.3424524E1,-2.3273844E1,-3.5865052E0],"split_indices":[0,0,0,0,0,0,0,0,0,0,0,0,0,0,0,0,0,0,0],"split_type":[0,0,0,0,0,0,0,0,0,0,0,0,0,0,0,0,0,0,0],"sum_hessian":[1E1,8E0,2E0,1E0,7E0,1E0,1E0,1E0,6E0,2E0,4E0,1E0,1E0,2E0,2E0,1E0,1E0,1E0,1E0],"tree_param":{"num_deleted":"0","num_feature":"2","num_nodes":"19","size_leaf_vector":"1"}},{"base_weights":[8.856252E1,-3.8207523E1,4.393518E2,-2.6854616E1,-2.0604618E1,2.2896681E2,-3.125848E1,1.4424244E1,-3.728551E1,-5.0861908E1,-2.1682568E1,-3.6298647E0,-1.9257996E1,1.4598582E1,-5.0736195E1,-4.8414783E0,1.141084E1,-1.9782766E1,-3.0485232E0],"categories":[],"categories_nodes":[],"categories_segments":[],"categories_sizes":[],"default_left":[0,0,0,0,0,0,0,0,0,0,0,0,0,0,0,0,0,0,0],"id":22,"left_children":[1,3,5,-1,7,-1,-1,-1,9,11,13,-1,-1,15,17,-1,-1,-1,-1],"loss_changes":[5.0595184E5,6.284077E3,6.076407E5,0E0,1.095859E4,0E0,0E0,0E0,3.8000586E2,7.7356055E2,6.011172E3,0E0,0E0,2.7750261E3,1.1808774E3,0E0,0E0,0E0,0E0],"parents":[2147483647,0,0,1,1,2,2,4,4,8,8,9,9,10,10,13,13,14,14],"right_children":[2,4,6,-1,8,-1,-1,-1,10,12,14,-1,-1,16,18,-1,-1,-1,-1],"split_conditions":[8E0,1E0,9E0,-2.6854616E1,2E0,2.2896681E2,-3.125848E1,1.4424244E1,4E0,3E0,6E0,-3.6298647E0,-1.9257996E1,5E0,7E0,-4.8414783E0,1.141084E1,-1.9782766E1,-3.0485232E0],"split_indices":[0,0,0,0,0,0,0,0,0,0,0,0,0,0,0,0,0,0,0],"split_type":[0,0,0,0,0,0,0,0,0,0,0,0,0,0,0,0,0,0,0],"sum_hessian":[1E1,8E0,2E0,1E0,7E0,1E0,1E0,1E0,6E0,2E0,4E0,1E0,1E0,2E0,2E0,1E0,1E0,1E0,1E0],"tree_param":{"num_deleted":"0","num_feature":"2","num_nodes":"19","size_leaf_vector":"1"}},{"base_weights":[7.527796E1,-3.2476402E1,3.734484E2,-2.2826424E1,-1.7513933E1,1.9462149E2,-2.6569708E1,1.2260596E1,-3.1692682E1,-4.3232624E1,-1.843018E1,-3.0853868E0,-1.6369295E1,1.2408783E1,-4.3125748E1,-4.1152544E0,9.699207E0,-1.6815351E1,-2.5912354E0],"categories":[],"categories_nodes":[],"categories_segments":[],"categories_sizes":[],"default_left":[0,0,0,0,0,0,0,0,0,0,0,0,0,0,0,0,0,0,0],"id":23,"left_children":[1,3,5,-1,7,-1,-1,-1,9,11,13,-1,-1,15,17,-1,-1,-1,-1],"loss_changes":[3.6554906E5,4.540244E3,4.390193E5,0E0,7.9175728E3,0E0,0E0,0E0,2.7455518E2,5.588965E2,4.3430664E3,0E0,0E0,2.0049535E3,8.53188E2,0E0,0E0,0E0,0E0],"parents":[2147483647,0,0,1,1,2,2,4,4,8,8,9,9,10,10,13,13,14,14],"right_children":[2,4,6,-1,8,-1,-1,-1,10,12,14,-1,-1,16,18,-1,-1,-1,-1],"split_conditions":[8E0,1E0,9E0,-2.2826424E1,2E0,1.9462149E2,-2.6569708E1,1.2260596E1,4E0,3E0,6E0,-3.0853868E0,-1.6369295E1,5E0,7E0,-4.1152544E0,9.699207E0,-1.6815351E1,-2.5912354E0],"split_indices":[0,0,0,0,0,0,0,0,0,0,0,0,0,0,0,0,0,0,0],"split_type":[0,0,0,0,0,0,0,0,0,0,0,0,0,0,0,0,0,0,0],"sum_hessian":[1E1,8E0,2E0,1E0,7E0,1E0,1E0,1E0,6E0,2E0,4E0,1E0,1E0,2E0,2E0,1E0,1E0,1E0,1E0],"tree_param":{"num_deleted":"0","num_feature":"2","num_nodes":"19","size_leaf_vector":"1"}},{"base_weights":[6.3986282E1,-2.7604963E1,3.1743127E2,-1.940246E1,-1.4886868E1,1.6542833E2,-2.2584251E1,1.0421485E1,-2.6938786E1,-3.674773E1,-1.5665662E1,-2.6225786E0,-1.3913901E1,1.0547465E1,-3.6656902E1,-3.4979646E0,8.244324E0,-1.4293049E1,-2.2025576E0],"categories":[],"categories_nodes":[],"categories_segments":[],"categories_sizes":[],"default_left":[0,0,0,0,0,0,0,0,0,0,0,0,0,0,0,0,0,0,0],"id":24,"left_children":[1,3,5,-1,7,-1,-1,-1,9,11,13,-1,-1,15,17,-1,-1,-1,-1],"loss_changes":[2.6410944E5,3.2803208E3,3.171917E5,0E0,5.720433E3,0E0,0E0,0E0,1.9836475E2,4.0380298E2,3.1378674E3,0E0,0E0,1.448578E3,6.1642554E2,0E0,0E0,0E0,0E0],"parents":[2147483647,0,0,1,1,2,2,4,4,8,8,9,9,10,10,13,13,14,14],"right_children":[2,4,6,-1,8,-1,-1,-1,10,12,14,-1,-1,16,18,-1,-1,-1,-1],"split_conditions":[8E0,1E0,9E0,-1.940246E1,2E0,1.6542833E2,-2.2584251E1,1.0421485E1,4E0,3E0,6E0,-2.6225786E0,-1.3913901E1,5E0,7E0,-3.4979646E0,8.244324E0,-1.4293049E1,-2.2025576E0],"split_indices":[0,0,0,0,0,0,0,0,0,0,0,0,0,0,0,0,0,0,0],"split_type":[0,0,0,0,0,0,0,0,0,0,0,0,0,0,0,0,0,0,0],"sum_hessian":[1E1,8E0,2E0,1E0,7E0,1E0,1E0,1E0,6E0,2E0,4E0,1E0,1E0,2E0,2E0,1E0,1E0,1E0,1E0],"tree_param":{"num_deleted":"0","num_feature":"2","num_nodes":"19","size_leaf_vector":"1"}},{"base_weights":[5.4388218E1,-2.346422E1,2.6981613E2,-1.649209E1,-1.2653839E1,1.4061388E2,-1.9196613E1,8.858276E0,-2.2897984E1,-3.123557E1,-1.3315836E1,-2.22919E0,-1.1826817E1,8.965322E0,-3.115838E1,-2.9732714E0,7.007666E0,-1.2149092E1,-1.8721802E0],"categories":[],"categories_nodes":[],"categories_segments":[],"categories_sizes":[],"default_left":[0,0,0,0,0,0,0,0,0,0,0,0,0,0,0,0,0,0,0],"id":25,"left_children":[1,3,5,-1,7,-1,-1,-1,9,11,13,-1,-1,15,17,-1,-1,-1,-1],"loss_changes":[1.9081847E5,2.3700312E3,2.2917048E5,0E0,4.1330234E3,0E0,0E0,0E0,1.4331592E2,2.917483E2,2.2671077E3,0E0,0E0,1.0465962E3,4.4536523E2,0E0,0E0,0E0,0E0],"parents":[2147483647,0,0,1,1,2,2,4,4,8,8,9,9,10,10,13,13,14,14],"right_children":[2,4,6,-1,8,-1,-1,-1,10,12,14,-1,-1,16,18,-1,-1,-1,-1],"split_conditions":[8E0,1E0,9E0,-1.649209E1,2E0,1.4061388E2,-1.9196613E1,8.858276E0,4E0,3E0,6E0,-2.22919E0,-1.1826817E1,5E0,7E0,-2.9732714E0,7.007666E0,-1.2149092E1,-1.8721802E0],"split_indices":[0,0,0,0,0,0,0,0,0,0,0,0,0,0,0,0,0,0,0],"split_type":[0,0,0,0,0,0,0,0,0,0,0,0,0,0,0,0,0,0,0],"sum_hessian":[1E1,8E0,2E0,1E0,7E0,1E0,1E0,1E0,6E0,2E0,4E0,1E0,1E0,2E0,2E0,1E0,1E0,1E0,1E0],"tree_param":{"num_deleted":"0","num_feature":"2","num_nodes":"19","size_leaf_vector":"1"}},{"base_weights":[4.6230022E1,-1.9944605E1,2.293439E2,-1.4018281E1,-1.0755781E1,1.1952188E2,-1.6317122E1,7.5295167E0,-1.946329E1,-2.6550238E1,-1.1318463E1,-1.8948121E0,-1.0052795E1,7.620514E0,-2.648462E1,-2.5272813E0,5.9565125E0,-1.0326728E1,-1.5913514E0],"categories":[],"categories_nodes":[],"categories_segments":[],"categories_sizes":[],"default_left":[0,0,0,0,0,0,0,0,0,0,0,0,0,0,0,0,0,0,0],"id":26,"left_children":[1,3,5,-1,7,-1,-1,-1,9,11,13,-1,-1,15,17,-1,-1,-1,-1],"loss_changes":[1.378666E5,1.7123462E3,1.6557584E5,0E0,2.986101E3,0E0,0E0,0E0,1.035459E2,2.1078784E2,1.6379839E3,0E0,0E0,7.561654E2,3.217771E2,0E0,0E0,0E0,0E0],"parents":[2147483647,0,0,1,1,2,2,4,4,8,8,9,9,10,10,13,13,14,14],"right_children":[2,4,6,-1,8,-1,-1,-1,10,12,14,-1,-1,16,18,-1,-1,-1,-1],"split_conditions":[8E0,1E0,9E0,-1.4018281E1,2E0,1.1952188E2,-1.6317122E1,7.5295167E0,4E0,3E0,6E0,-1.8948121E0,-1.0052795E1,5E0,7E0,-2.5272813E0,5.9565125E0,-1.0326728E1,-1.5913514E0],"split_indices":[0,0,0,0,0,0,0,0,0,0,0,0,0,0,0,0,0,0,0],"split_type":[0,0,0,0,0,0,0,0,0,0,0,0,0,0,0,0,0,0,0],"sum_hessian":[1E1,8E0,2E0,1E0,7E0,1E0,1E0,1E0,6E0,2E0,4E0,1E0,1E0,2E0,2E0,1E0,1E0,1E0,1E0],"tree_param":{"num_deleted":"0","num_feature":"2","num_nodes":"19","size_leaf_vector":"1"}},{"base_weights":[3.929539E1,-1.6952896E1,1.9494179E2,-1.1915534E1,-9.142397E0,1.0159336E2,-1.3869554E1,6.400122E0,-1.6543808E1,-2.2567703E1,-9.620709E0,-1.6105912E0,-8.544876E0,6.477427E0,-2.2511942E1,-2.1481888E0,5.063031E0,-8.7777195E0,-1.352655E0],"categories":[],"categories_nodes":[],"categories_segments":[],"categories_sizes":[],"default_left":[0,0,0,0,0,0,0,0,0,0,0,0,0,0,0,0,0,0,0],"id":27,"left_children":[1,3,5,-1,7,-1,-1,-1,9,11,13,-1,-1,15,17,-1,-1,-1,-1],"loss_changes":[9.960811E4,1.2371707E3,1.1962809E5,0E0,2.1574727E3,0E0,0E0,0E0,7.481079E1,1.5229407E2,1.1834436E3,0E0,0E0,5.4632874E2,2.3248242E2,0E0,0E0,0E0,0E0],"parents":[2147483647,0,0,1,1,2,2,4,4,8,8,9,9,10,10,13,13,14,14],"right_children":[2,4,6,-1,8,-1,-1,-1,10,12,14,-1,-1,16,18,-1,-1,-1,-1],"split_conditions":[8E0,1E0,9E0,-1.1915534E1,2E0,1.0159336E2,-1.3869554E1,6.400122E0,4E0,3E0,6E0,-1.6105912E0,-8.544876E0,5E0,7E0,-2.1481888E0,5.063031E0,-8.7777195E0,-1.352655E0],"split_indices":[0,0,0,0,0,0,0,0,0,0,0,0,0,0,0,0,0,0,0],"split_type":[0,0,0,0,0,0,0,0,0,0,0,0,0,0,0,0,0,0,0],"sum_hessian":[1E1,8E0,2E0,1E0,7E0,1E0,1E0,1E0,6E0,2E0,4E0,1E0,1E0,2E0,2E0,1E0,1E0,1E0,1E0],"tree_param":{"num_deleted":"0","num_feature":"2","num_nodes":"19","size_leaf_vector":"1"}},{"base_weights":[3.3401073E1,-1.4409931E1,1.657004E2,-1.0128204E1,-7.771002E0,8.63543E1,-1.178912E1,5.440137E0,-1.4062227E1,-1.9182547E1,-8.177591E0,-1.3690019E0,-7.263144E0,5.505829E0,-1.9135147E1,-1.8259598E0,4.303583E0,-7.4610605E0,-1.149756E0],"categories":[],"categories_nodes":[],"categories_segments":[],"categories_sizes":[],"default_left":[0,0,0,0,0,0,0,0,0,0,0,0,0,0,0,0,0,0,0],"id":28,"left_children":[1,3,5,-1,7,-1,-1,-1,9,11,13,-1,-1,15,17,-1,-1,-1,-1],"loss_changes":[7.196672E4,8.9385986E2,8.64312E4,0E0,1.5587845E3,0E0,0E0,0E0,5.4051636E1,1.1003247E2,8.5503906E2,0E0,0E0,3.947232E2,1.6796875E2,0E0,0E0,0E0,0E0],"parents":[2147483647,0,0,1,1,2,2,4,4,8,8,9,9,10,10,13,13,14,14],"right_children":[2,4,6,-1,8,-1,-1,-1,10,12,14,-1,-1,16,18,-1,-1,-1,-1],"split_conditions":[8E0,1E0,9E0,-1.0128204E1,2E0,8.63543E1,-1.178912E1,5.440137E0,4E0,3E0,6E0,-1.3690019E0,-7.263144E0,5E0,7E0,-1.8259598E0,4.303583E0,-7.4610605E0,-1.149756E0],"split_indices":[0,0,0,0,0,0,0,0,0,0,0,0,0,0,0,0,0,0,0],"split_type":[0,0,0,0,0,0,0,0,0,0,0,0,0,0,0,0,0,0,0],"sum_hessian":[1E1,8E0,2E0,1E0,7E0,1E0,1E0,1E0,6E0,2E0,4E0,1E0,1E0,2E0,2E0,1E0,1E0,1E0,1E0],"tree_param":{"num_deleted":"0","num_feature":"2","num_nodes":"19","size_leaf_vector":"1"}},{"base_weights":[2.8390821E1,-1.2248423E1,1.4084494E2,-8.608978E0,-6.6053267E0,7.340098E1,-1.0020752E1,4.6241455E0,-1.1952893E1,-1.6305168E1,-6.950949E0,-1.1636536E0,-6.173672E0,4.679952E0,-1.6264868E1,-1.5520661E0,3.6580446E0,-6.341902E0,-9.7728884E-1],"categories":[],"categories_nodes":[],"categories_segments":[],"categories_sizes":[],"default_left":[0,0,0,0,0,0,0,0,0,0,0,0,0,0,0,0,0,0,0],"id":29,"left_children":[1,3,5,-1,7,-1,-1,-1,9,11,13,-1,-1,15,17,-1,-1,-1,-1],"loss_changes":[5.1995684E4,6.4581714E2,6.24463E4,0E0,1.1262305E3,0E0,0E0,0E0,3.905237E1,7.949823E1,6.1776514E2,0E0,0E0,2.8518744E2,1.2135803E2,0E0,0E0,0E0,0E0],"parents":[2147483647,0,0,1,1,2,2,4,4,8,8,9,9,10,10,13,13,14,14],"right_children":[2,4,6,-1,8,-1,-1,-1,10,12,14,-1,-1,16,18,-1,-1,-1,-1],"split_conditions":[8E0,1E0,9E0,-8.608978E0,2E0,7.340098E1,-1.0020752E1,4.6241455E0,4E0,3E0,6E0,-1.1636536E0,-6.173672E0,5E0,7E0,-1.5520661E0,3.6580446E0,-6.341902E0,-9.7728884E-1],"split_indices":[0,0,0,0,0,0,0,0,0,0,0,0,0,0,0,0,0,0,0],"split_type":[0,0,0,0,0,0,0,0,0,0,0,0,0,0,0,0,0,0,0],"sum_hessian":[1E1,8E0,2E0,1E0,7E0,1E0,1E0,1E0,6E0,2E0,4E0,1E0,1E0,2E0,2E0,1E0,1E0,1E0,1E0],"tree_param":{"num_deleted":"0","num_feature":"2","num_nodes":"19","size_leaf_vector":"1"}},{"base_weights":[2.4132086E1,-1.0411144E1,1.1971775E2,-7.3176274E0,-5.6145144E0,6.239063E1,-8.517639E0,3.9305422E0,-1.0159961E1,-1.3859387E1,-5.908313E0,-9.8910373E-1,-5.247621E0,3.977946E0,-1.3825134E1,-1.3192567E0,3.1093323E0,-5.390616E0,-8.306946E-1],"categories":[],"categories_nodes":[],"categories_segments":[],"categories_sizes":[],"default_left":[0,0,0,0,0,0,0,0,0,0,0,0,0,0,0,0,0,0,0],"id":30,"left_children":[1,3,5,-1,7,-1,-1,-1,9,11,13,-1,-1,15,17,-1,-1,-1,-1],"loss_changes":[3.7566613E4,4.6660303E2,4.5117207E4,0E0,8.137061E2,0E0,0E0,0E0,2.8215027E1,5.7437683E1,4.4633438E2,0E0,0E0,2.0604752E2,8.7681274E1,0E0,0E0,0E0,0E0],"parents":[2147483647,0,0,1,1,2,2,4,4,8,8,9,9,10,10,13,13,14,14],"right_children":[2,4,6,-1,8,-1,-1,-1,10,12,14,-1,-1,16,18,-1,-1,-1,-1],"split_conditions":[8E0,1E0,9E0,-7.3176274E0,2E0,6.239063E1,-8.517639E0,3.9305422E0,4E0,3E0,6E0,-9.8910373E-1,-5.247621E0,5E0,7E0,-1.3192567E0,3.1093323E0,-5.390616E0,-8.306946E-1],"split_indices":[0,0,0,0,0,0,0,0,0,0,0,0,0,0,0,0,0,0,0],"split_type":[0,0,0,0,0,0,0,0,0,0,0,0,0,0,0,0,0,0,0],"sum_hessian":[1E1,8E0,2E0,1E0,7E0,1E0,1E0,1E0,6E0,2E0,4E0,1E0,1E0,2E0,2E0,1E0,1E0,1E0,1E0],"tree_param":{"num_deleted":"0","num_feature":"2","num_nodes":"19","size_leaf_vector":"1"}},{"base_weights":[2.0512257E1,-8.849492E0,1.01760086E2,-6.219983E0,-4.77236E0,5.3032032E1,-7.2399926E0,3.3409426E0,-8.635976E0,-1.1780479E1,-5.022078E0,-8.4073794E-1,-4.460478E0,3.3812358E0,-1.1751366E1,-1.12137E0,2.6429262E0,-4.5820236E0,-7.0609134E-1],"categories":[],"categories_nodes":[],"categories_segments":[],"categories_sizes":[],"default_left":[0,0,0,0,0,0,0,0,0,0,0,0,0,0,0,0,0,0,0],"id":31,"left_children":[1,3,5,-1,7,-1,-1,-1,9,11,13,-1,-1,15,17,-1,-1,-1,-1],"loss_changes":[2.7141889E4,3.371192E2,3.2597182E4,0E0,5.8789923E2,0E0,0E0,0E0,2.0384949E1,4.149875E1,3.224757E2,0E0,0E0,1.4886903E2,6.334961E1,0E0,0E0,0E0,0E0],"parents":[2147483647,0,0,1,1,2,2,4,4,8,8,9,9,10,10,13,13,14,14],"right_children":[2,4,6,-1,8,-1,-1,-1,10,12,14,-1,-1,16,18,-1,-1,-1,-1],"split_conditions":[8E0,1E0,9E0,-6.219983E0,2E0,5.3032032E1,-7.2399926E0,3.3409426E0,4E0,3E0,6E0,-8.4073794E-1,-4.460478E0,5E0,7E0,-1.12137E0,2.6429262E0,-4.5820236E0,-7.0609134E-1],"split_indices":[0,0,0,0,0,0,0,0,0,0,0,0,0,0,0,0,0,0,0],"split_type":[0,0,0,0,0,0,0,0,0,0,0,0,0,0,0,0,0,0,0],"sum_hessian":[1E1,8E0,2E0,1E0,7E0,1E0,1E0,1E0,6E0,2E0,4E0,1E0,1E0,2E0,2E0,1E0,1E0,1E0,1E0],"tree_param":{"num_deleted":"0","num_feature":"2","num_nodes":"19","size_leaf_vector":"1"}},{"base_weights":[1.7435493E1,-7.5220633E0,8.649633E1,-5.2869873E0,-4.0564985E0,4.5077347E1,-6.153994E0,2.8398194E0,-7.340588E0,-1.001341E1,-4.2687774E0,-7.1462864E-1,-3.791406E0,2.8740437E0,-9.988673E0,-9.531647E-1,2.2464845E0,-3.8947198E0,-6.001831E-1],"categories":[],"categories_nodes":[],"categories_segments":[],"categories_sizes":[],"default_left":[0,0,0,0,0,0,0,0,0,0,0,0,0,0,0,0,0,0,0],"id":32,"left_children":[1,3,5,-1,7,-1,-1,-1,9,11,13,-1,-1,15,17,-1,-1,-1,-1],"loss_changes":[1.9610117E4,2.4356934E2,2.3551568E4,0E0,4.2476096E2,0E0,0E0,0E0,1.4727814E1,2.9982697E1,2.3298886E2,0E0,0E0,1.07557724E2,4.576947E1,0E0,0E0,0E0,0E0],"parents":[2147483647,0,0,1,1,2,2,4,4,8,8,9,9,10,10,13,13,14,14],"right_children":[2,4,6,-1,8,-1,-1,-1,10,12,14,-1,-1,16,18,-1,-1,-1,-1],"split_conditions":[8E0,1E0,9E0,-5.2869873E0,2E0,4.5077347E1,-6.153994E0,2.8398194E0,4E0,3E0,6E0,-7.1462864E-1,-3.791406E0,5E0,7E0,-9.531647E-1,2.2464845E0,-3.8947198E0,-6.001831E-1],"split_indices":[0,0,0,0,0,0,0,0,0,0,0,0,0,0,0,0,0,0,0],"split_type":[0,0,0,0,0,0,0,0,0,0,0,0,0,0,0,0,0,0,0],"sum_hessian":[1E1,8E0,2E0,1E0,7E0,1E0,1E0,1E0,6E0,2E0,4E0,1E0,1E0,2E0,2E0,1E0,1E0,1E0,1E0],"tree_param":{"num_deleted":"0","num_feature":"2","num_nodes":"19","size_leaf_vector":"1"}},{"base_weights":[1.4820101E1,-6.3937507E0,7.352162E1,-4.4939394E0,-3.44802E0,3.8315628E1,-5.2308955E0,2.413843E0,-6.239492E0,-8.511398E0,-3.62845E0,-6.074341E-1,-3.2226954E0,2.4429424E0,-8.490359E0,-8.101914E-1,1.9095155E0,-3.3105116E0,-5.101502E-1],"categories":[],"categories_nodes":[],"categories_segments":[],"categories_sizes":[],"default_left":[0,0,0,0,0,0,0,0,0,0,0,0,0,0,0,0,0,0,0],"id":33,"left_children":[1,3,5,-1,7,-1,-1,-1,9,11,13,-1,-1,15,17,-1,-1,-1,-1],"loss_changes":[1.4168218E4,1.75979E2,1.7015922E4,0E0,3.0688892E2,0E0,0E0,0E0,1.0641144E1,2.1662521E1,1.6833424E2,0E0,0E0,7.771075E1,3.306894E1,0E0,0E0,0E0,0E0],"parents":[2147483647,0,0,1,1,2,2,4,4,8,8,9,9,10,10,13,13,14,14],"right_children":[2,4,6,-1,8,-1,-1,-1,10,12,14,-1,-1,16,18,-1,-1,-1,-1],"split_conditions":[8E0,1E0,9E0,-4.4939394E0,2E0,3.8315628E1,-5.2308955E0,2.413843E0,4E0,3E0,6E0,-6.074341E-1,-3.2226954E0,5E0,7E0,-8.101914E-1,1.9095155E0,-3.3105116E0,-5.101502E-1],"split_indices":[0,0,0,0,0,0,0,0,0,0,0,0,0,0,0,0,0,0,0],"split_type":[0,0,0,0,0,0,0,0,0,0,0,0,0,0,0,0,0,0,0],"sum_hessian":[1E1,8E0,2E0,1E0,7E0,1E0,1E0,1E0,6E0,2E0,4E0,1E0,1E0,2E0,2E0,1E0,1E0,1E0,1E0],"tree_param":{"num_deleted":"0","num_feature":"2","num_nodes":"19","size_leaf_vector":"1"}},{"base_weights":[1.259699E1,-5.4347186E0,6.249312E1,-3.8198457E0,-2.9308538E0,3.2568165E1,-4.446261E0,2.0517335E0,-5.303579E0,-7.234693E0,-3.084195E0,-5.163208E-1,-2.7392912E0,2.0764873E0,-7.216812E0,-6.8866426E-1,1.6230836E0,-2.8139353E0,-4.3363038E-1],"categories":[],"categories_nodes":[],"categories_segments":[],"categories_sizes":[],"default_left":[0,0,0,0,0,0,0,0,0,0,0,0,0,0,0,0,0,0,0],"id":34,"left_children":[1,3,5,-1,7,-1,-1,-1,9,11,13,-1,-1,15,17,-1,-1,-1,-1],"loss_changes":[1.0236469E4,1.2714307E2,1.2293933E4,0E0,2.217233E2,0E0,0E0,0E0,7.6879883E0,1.5651047E1,1.2162123E2,0E0,0E0,5.61459E1,2.3892105E1,0E0,0E0,0E0,0E0],"parents":[2147483647,0,0,1,1,2,2,4,4,8,8,9,9,10,10,13,13,14,14],"right_children":[2,4,6,-1,8,-1,-1,-1,10,12,14,-1,-1,16,18,-1,-1,-1,-1],"split_conditions":[8E0,1E0,9E0,-3.8198457E0,2E0,3.2568165E1,-4.446261E0,2.0517335E0,4E0,3E0,6E0,-5.163208E-1,-2.7392912E0,5E0,7E0,-6.8866426E-1,1.6230836E0,-2.8139353E0,-4.3363038E-1],"split_indices":[0,0,0,0,0,0,0,0,0,0,0,0,0,0,0,0,0,0,0],"split_type":[0,0,0,0,0,0,0,0,0,0,0,0,0,0,0,0,0,0,0],"sum_hessian":[1E1,8E0,2E0,1E0,7E0,1E0,1E0,1E0,6E0,2E0,4E0,1E0,1E0,2E0,2E0,1E0,1E0,1E0,1E0],"tree_param":{"num_deleted":"0","num_feature":"2","num_nodes":"19","size_leaf_vector":"1"}},{"base_weights":[1.0707597E1,-4.6195164E0,5.3119736E1,-3.2468722E0,-2.491229E0,2.7683205E1,-3.7793221E0,1.7439698E0,-4.5080423E0,-6.149488E0,-2.6215668E0,-4.3887177E-1,-2.3283978E0,1.7650248E0,-6.1343026E0,-5.853653E-1,1.3796265E0,-2.391845E0,-3.685913E-1],"categories":[],"categories_nodes":[],"categories_segments":[],"categories_sizes":[],"default_left":[0,0,0,0,0,0,0,0,0,0,0,0,0,0,0,0,0,0,0],"id":35,"left_children":[1,3,5,-1,7,-1,-1,-1,9,11,13,-1,-1,15,17,-1,-1,-1,-1],"loss_changes":[7.396E3,9.186101E1,8.882504E3,0E0,1.6019469E2,0E0,0E0,0E0,5.554535E0,1.1307945E1,8.787189E1,0E0,0E0,4.056566E1,1.7261703E1,0E0,0E0,0E0,0E0],"parents":[2147483647,0,0,1,1,2,2,4,4,8,8,9,9,10,10,13,13,14,14],"right_children":[2,4,6,-1,8,-1,-1,-1,10,12,14,-1,-1,16,18,-1,-1,-1,-1],"split_conditions":[8E0,1E0,9E0,-3.2468722E0,2E0,2.7683205E1,-3.7793221E0,1.7439698E0,4E0,3E0,6E0,-4.3887177E-1,-2.3283978E0,5E0,7E0,-5.853653E-1,1.3796265E0,-2.391845E0,-3.685913E-1],"split_indices":[0,0,0,0,0,0,0,0,0,0,0,0,0,0,0,0,0,0,0],"split_type":[0,0,0,0,0,0,0,0,0,0,0,0,0,0,0,0,0,0,0],"sum_hessian":[1E1,8E0,2E0,1E0,7E0,1E0,1E0,1E0,6E0,2E0,4E0,1E0,1E0,2E0,2E0,1E0,1E0,1E0,1E0],"tree_param":{"num_deleted":"0","num_feature":"2","num_nodes":"19","size_leaf_vector":"1"}},{"base_weights":[9.101411E0,-3.926601E0,4.5151646E1,-2.759839E0,-2.1175604E0,2.3530664E1,-3.2124243E0,1.4823487E0,-3.8318295E0,-5.2270637E0,-2.2283235E0,-3.730408E-1,-1.9791379E0,1.5002645E0,-5.2141366E0,-4.9756166E-1,1.1726807E0,-2.0330682E0,-3.1329346E-1],"categories":[],"categories_nodes":[],"categories_segments":[],"categories_sizes":[],"default_left":[0,0,0,0,0,0,0,0,0,0,0,0,0,0,0,0,0,0,0],"id":36,"left_children":[1,3,5,-1,7,-1,-1,-1,9,11,13,-1,-1,15,17,-1,-1,-1,-1],"loss_changes":[5.3435845E3,6.636899E1,6.4175835E3,0E0,1.157381E2,0E0,0E0,0E0,4.0132675E0,8.169998E0,6.3486923E1,0E0,0E0,2.9308678E1,1.2472084E1,0E0,0E0,0E0,0E0],"parents":[2147483647,0,0,1,1,2,2,4,4,8,8,9,9,10,10,13,13,14,14],"right_children":[2,4,6,-1,8,-1,-1,-1,10,12,14,-1,-1,16,18,-1,-1,-1,-1],"split_conditions":[8E0,1E0,9E0,-2.759839E0,2E0,2.3530664E1,-3.2124243E0,1.4823487E0,4E0,3E0,6E0,-3.730408E-1,-1.9791379E0,5E0,7E0,-4.9756166E-1,1.1726807E0,-2.0330682E0,-3.1329346E-1],"split_indices":[0,0,0,0,0,0,0,0,0,0,0,0,0,0,0,0,0,0,0],"split_type":[0,0,0,0,0,0,0,0,0,0,0,0,0,0,0,0,0,0,0],"sum_hessian":[1E1,8E0,2E0,1E0,7E0,1E0,1E0,1E0,6E0,2E0,4E0,1E0,1E0,2E0,2E0,1E0,1E0,1E0,1E0],"tree_param":{"num_deleted":"0","num_feature":"2","num_nodes":"19","size_leaf_vector":"1"}},{"base_weights":[7.7361293E0,-3.3376322E0,3.8378704E1,-2.345865E0,-1.7999487E0,2.0000977E1,-2.7305603E0,1.2599854E0,-3.2570703E0,-4.443001E0,-1.8940979E0,-3.1708375E-1,-1.6822667E0,1.2752075E0,-4.4320374E0,-4.229279E-1,9.967713E-1,-1.7281083E0,-2.663086E-1],"categories":[],"categories_nodes":[],"categories_segments":[],"categories_sizes":[],"default_left":[0,0,0,0,0,0,0,0,0,0,0,0,0,0,0,0,0,0,0],"id":37,"left_children":[1,3,5,-1,7,-1,-1,-1,9,11,13,-1,-1,15,17,-1,-1,-1,-1],"loss_changes":[3.860708E3,4.795114E1,4.636671E3,0E0,8.362021E1,0E0,0E0,0E0,2.8992538E0,5.9028587E0,4.5869293E1,0E0,0E0,2.1175335E1,9.010651E0,0E0,0E0,0E0,0E0],"parents":[2147483647,0,0,1,1,2,2,4,4,8,8,9,9,10,10,13,13,14,14],"right_children":[2,4,6,-1,8,-1,-1,-1,10,12,14,-1,-1,16,18,-1,-1,-1,-1],"split_conditions":[8E0,1E0,9E0,-2.345865E0,2E0,2.0000977E1,-2.7305603E0,1.2599854E0,4E0,3E0,6E0,-3.1708375E-1,-1.6822667E0,5E0,7E0,-4.229279E-1,9.967713E-1,-1.7281083E0,-2.663086E-1],"split_indices":[0,0,0,0,0,0,0,0,0,0,0,0,0,0,0,0,0,0,0],"split_type":[0,0,0,0,0,0,0,0,0,0,0,0,0,0,0,0,0,0,0],"sum_hessian":[1E1,8E0,2E0,1E0,7E0,1E0,1E0,1E0,6E0,2E0,4E0,1E0,1E0,2E0,2E0,1E0,1E0,1E0,1E0],"tree_param":{"num_deleted":"0","num_feature":"2","num_nodes":"19","size_leaf_vector":"1"}},{"base_weights":[6.575821E0,-2.8369598E0,3.2622223E1,-1.993982E0,-1.5299282E0,1.7000977E1,-2.3209763E0,1.0710206E0,-2.768509E0,-3.776553E0,-1.6099808E0,-2.695221E-1,-1.4299268E0,1.0839132E0,-3.7672145E0,-3.594864E-1,8.4724736E-1,-1.4688916E0,-2.2635499E-1],"categories":[],"categories_nodes":[],"categories_segments":[],"categories_sizes":[],"default_left":[0,0,0,0,0,0,0,0,0,0,0,0,0,0,0,0,0,0,0],"id":38,"left_children":[1,3,5,-1,7,-1,-1,-1,9,11,13,-1,-1,15,17,-1,-1,-1,-1],"loss_changes":[2.7894077E3,3.464512E1,3.3500413E3,0E0,6.0417824E1,0E0,0E0,0E0,2.0947495E0,4.264778E0,3.314013E1,0E0,0E0,1.5298918E1,6.510483E0,0E0,0E0,0E0,0E0],"parents":[2147483647,0,0,1,1,2,2,4,4,8,8,9,9,10,10,13,13,14,14],"right_children":[2,4,6,-1,8,-1,-1,-1,10,12,14,-1,-1,16,18,-1,-1,-1,-1],"split_conditions":[8E0,1E0,9E0,-1.993982E0,2E0,1.7000977E1,-2.3209763E0,1.0710206E0,4E0,3E0,6E0,-2.695221E-1,-1.4299268E0,5E0,7E0,-3.594864E-1,8.4724736E-1,-1.4688916E0,-2.2635499E-1],"split_indices":[0,0,0,0,0,0,0,0,0,0,0,0,0,0,0,0,0,0,0],"split_type":[0,0,0,0,0,0,0,0,0,0,0,0,0,0,0,0,0,0,0],"sum_hessian":[1E1,8E0,2E0,1E0,7E0,1E0,1E0,1E0,6E0,2E0,4E0,1E0,1E0,2E0,2E0,1E0,1E0,1E0,1E0],"tree_param":{"num_deleted":"0","num_feature":"2","num_nodes":"19","size_leaf_vector":"1"}},{"base_weights":[5.5895495E0,-2.4114003E0,2.7729216E1,-1.6948884E0,-1.3004184E0,1.4450977E1,-1.9728299E0,9.1040045E-1,-2.3532405E0,-3.2100666E0,-1.3684967E0,-2.2909242E-1,-1.2154375E0,9.213155E-1,-3.2021434E0,-3.0556184E-1,7.201538E-1,-1.2485573E0,-1.9240724E-1],"categories":[],"categories_nodes":[],"categories_segments":[],"categories_sizes":[],"default_left":[0,0,0,0,0,0,0,0,0,0,0,0,0,0,0,0,0,0,0],"id":39,"left_children":[1,3,5,-1,7,-1,-1,-1,9,11,13,-1,-1,15,17,-1,-1,-1,-1],"loss_changes":[2.0153881E3,2.5031624E1,2.4204448E3,0E0,4.36539E1,0E0,0E0,0E0,1.5133133E0,3.0813465E0,2.3943716E1,0E0,0E0,1.1053301E1,4.7036266E0,0E0,0E0,0E0,0E0],"parents":[2147483647,0,0,1,1,2,2,4,4,8,8,9,9,10,10,13,13,14,14],"right_children":[2,4,6,-1,8,-1,-1,-1,10,12,14,-1,-1,16,18,-1,-1,-1,-1],"split_conditions":[8E0,1E0,9E0,-1.6948884E0,2E0,1.4450977E1,-1.9728299E0,9.1040045E-1,4E0,3E0,6E0,-2.2909242E-1,-1.2154375E0,5E0,7E0,-3.0556184E-1,7.201538E-1,-1.2485573E0,-1.9240724E-1],"split_indices":[0,0,0,0,0,0,0,0,0,0,0,0,0,0,0,0,0,0,0],"split_type":[0,0,0,0,0,0,0,0,0,0,0,0,0,0,0,0,0,0,0],"sum_hessian":[1E1,8E0,2E0,1E0,7E0,1E0,1E0,1E0,6E0,2E0,4E0,1E0,1E0,2E0,2E0,1E0,1E0,1E0,1E0],"tree_param":{"num_deleted":"0","num_feature":"2","num_nodes":"19","size_leaf_vector":"1"}},{"base_weights":[4.751248E0,-2.0497255E0,2.357042E1,-1.4406556E0,-1.1053948E0,1.2283594E1,-1.6769052E0,7.738038E-1,-2.0002644E0,-2.728555E0,-1.163237E0,-1.9472809E-1,-1.0331217E0,7.831014E-1,-2.7218297E0,-2.5972596E-1,6.121216E-1,-1.0612736E0,-1.6354981E-1],"categories":[],"categories_nodes":[],"categories_segments":[],"categories_sizes":[],"default_left":[0,0,0,0,0,0,0,0,0,0,0,0,0,0,0,0,0,0,0],"id":40,"left_children":[1,3,5,-1,7,-1,-1,-1,9,11,13,-1,-1,15,17,-1,-1,-1,-1],"loss_changes":[1.4561885E3,1.8084778E1,1.7488322E3,0E0,3.1538269E1,0E0,0E0,0E0,1.0932388E0,2.226284E0,1.7299213E1,0E0,0E0,7.985821E0,3.398264E0,0E0,0E0,0E0,0E0],"parents":[2147483647,0,0,1,1,2,2,4,4,8,8,9,9,10,10,13,13,14,14],"right_children":[2,4,6,-1,8,-1,-1,-1,10,12,14,-1,-1,16,18,-1,-1,-1,-1],"split_conditions":[8E0,1E0,9E0,-1.4406556E0,2E0,1.2283594E1,-1.6769052E0,7.738038E-1,4E0,3E0,6E0,-1.9472809E-1,-1.0331217E0,5E0,7E0,-2.5972596E-1,6.121216E-1,-1.0612736E0,-1.6354981E-1],"split_indices":[0,0,0,0,0,0,0,0,0,0,0,0,0,0,0,0,0,0,0],"split_type":[0,0,0,0,0,0,0,0,0,0,0,0,0,0,0,0,0,0,0],"sum_hessian":[1E1,8E0,2E0,1E0,7E0,1E0,1E0,1E0,6E0,2E0,4E0,1E0,1E0,2E0,2E0,1E0,1E0,1E0,1E0],"tree_param":{"num_deleted":"0","num_feature":"2","num_nodes":"19","size_leaf_vector":"1"}},{"base_weights":[4.0384183E0,-1.7422671E0,2.0034336E1,-1.2245545E0,-9.3958855E-1,1.0440821E1,-1.4253691E0,6.5771484E-1,-1.7002106E0,-2.31927E0,-9.8873293E-1,-1.655182E-1,-8.7815326E-1,6.656596E-1,-2.3135478E0,-2.207657E-1,5.2031255E-1,-9.0208286E-1,-1.3901368E-1],"categories":[],"categories_nodes":[],"categories_segments":[],"categories_sizes":[],"default_left":[0,0,0,0,0,0,0,0,0,0,0,0,0,0,0,0,0,0,0],"id":41,"left_children":[1,3,5,-1,7,-1,-1,-1,9,11,13,-1,-1,15,17,-1,-1,-1,-1],"loss_changes":[1.0520463E3,1.3066128E1,1.2634852E3,0E0,2.2785484E1,0E0,0E0,0E0,7.899895E-1,1.6085052E0,1.2498854E1,0E0,0E0,5.7698607E0,2.4553394E0,0E0,0E0,0E0,0E0],"parents":[2147483647,0,0,1,1,2,2,4,4,8,8,9,9,10,10,13,13,14,14],"right_children":[2,4,6,-1,8,-1,-1,-1,10,12,14,-1,-1,16,18,-1,-1,-1,-1],"split_conditions":[8E0,1E0,9E0,-1.2245545E0,2E0,1.0440821E1,-1.4253691E0,6.5771484E-1,4E0,3E0,6E0,-1.655182E-1,-8.7815326E-1,5E0,7E0,-2.207657E-1,5.2031255E-1,-9.0208286E-1,-1.3901368E-1],"split_indices":[0,0,0,0,0,0,0,0,0,0,0,0,0,0,0,0,0,0,0],"split_type":[0,0,0,0,0,0,0,0,0,0,0,0,0,0,0,0,0,0,0],"sum_hessian":[1E1,8E0,2E0,1E0,7E0,1E0,1E0,1E0,6E0,2E0,4E0,1E0,1E0,2E0,2E0,1E0,1E0,1E0,1E0],"tree_param":{"num_deleted":"0","num_feature":"2","num_nodes":"19","size_leaf_vector":"1"}},{"base_weights":[3.4326096E0,-1.4809184E0,1.702899E1,-1.0408722E0,-7.986398E-1,8.87461E0,-1.2115637E0,5.5905765E-1,-1.445167E0,-1.9713758E0,-8.404083E-1,-1.4068909E-1,-7.4643004E-1,5.658264E-1,-1.966507E0,-1.8765107E-1,4.4227296E-1,-7.667702E-1,-1.1815796E-1],"categories":[],"categories_nodes":[],"categories_segments":[],"categories_sizes":[],"default_left":[0,0,0,0,0,0,0,0,0,0,0,0,0,0,0,0,0,0,0],"id":42,"left_children":[1,3,5,-1,7,-1,-1,-1,9,11,13,-1,-1,15,17,-1,-1,-1,-1],"loss_changes":[7.6008673E2,9.440416E0,9.1285333E2,0E0,1.6462402E1,0E0,0E0,0E0,5.708437E-1,1.1621704E0,9.030497E0,0E0,0E0,4.1688166E0,1.7740574E0,0E0,0E0,0E0,0E0],"parents":[2147483647,0,0,1,1,2,2,4,4,8,8,9,9,10,10,13,13,14,14],"right_children":[2,4,6,-1,8,-1,-1,-1,10,12,14,-1,-1,16,18,-1,-1,-1,-1],"split_conditions":[8E0,1E0,9E0,-1.0408722E0,2E0,8.87461E0,-1.2115637E0,5.5905765E-1,4E0,3E0,6E0,-1.4068909E-1,-7.4643004E-1,5E0,7E0,-1.8765107E-1,4.4227296E-1,-7.667702E-1,-1.1815796E-1],"split_indices":[0,0,0,0,0,0,0,0,0,0,0,0,0,0,0,0,0,0,0],"split_type":[0,0,0,0,0,0,0,0,0,0,0,0,0,0,0,0,0,0,0],"sum_hessian":[1E1,8E0,2E0,1E0,7E0,1E0,1E0,1E0,6E0,2E0,4E0,1E0,1E0,2E0,2E0,1E0,1E0,1E0,1E0],"tree_param":{"num_deleted":"0","num_feature":"2","num_nodes":"19","size_leaf_vector":"1"}},{"base_weights":[2.9176836E0,-1.2587793E0,1.4474511E1,-8.847382E-1,-6.788449E-1,7.5433598E0,-1.0298293E0,4.7519532E-1,-1.2283897E0,-1.6756706E0,-7.1434325E-1,-1.19586185E-1,-6.3446563E-1,4.8095703E-1,-1.6715292E0,-1.5950318E-1,3.7593386E-1,-6.517548E-1,-1.0043336E-1],"categories":[],"categories_nodes":[],"categories_segments":[],"categories_sizes":[],"default_left":[0,0,0,0,0,0,0,0,0,0,0,0,0,0,0,0,0,0,0],"id":43,"left_children":[1,3,5,-1,7,-1,-1,-1,9,11,13,-1,-1,15,17,-1,-1,-1,-1],"loss_changes":[5.4915356E2,6.8206177E0,6.5952814E2,0E0,1.1893959E1,0E0,0E0,0E0,4.1245842E-1,8.3966064E-1,6.524557E0,0E0,0E0,3.0119855E0,1.2817736E0,0E0,0E0,0E0,0E0],"parents":[2147483647,0,0,1,1,2,2,4,4,8,8,9,9,10,10,13,13,14,14],"right_children":[2,4,6,-1,8,-1,-1,-1,10,12,14,-1,-1,16,18,-1,-1,-1,-1],"split_conditions":[8E0,1E0,9E0,-8.847382E-1,2E0,7.5433598E0,-1.0298293E0,4.7519532E-1,4E0,3E0,6E0,-1.19586185E-1,-6.3446563E-1,5E0,7E0,-1.5950318E-1,3.7593386E-1,-6.517548E-1,-1.0043336E-1],"split_indices":[0,0,0,0,0,0,0,0,0,0,0,0,0,0,0,0,0,0,0],"split_type":[0,0,0,0,0,0,0,0,0,0,0,0,0,0,0,0,0,0,0],"sum_hessian":[1E1,8E0,2E0,1E0,7E0,1E0,1E0,1E0,6E0,2E0,4E0,1E0,1E0,2E0,2E0,1E0,1E0,1E0,1E0],"tree_param":{"num_deleted":"0","num_feature":"2","num_nodes":"19","size_leaf_vector":"1"}},{"base_weights":[2.4800794E0,-1.0699471E0,1.2303466E1,-7.5202334E-1,-5.7700443E-1,6.4119143E0,-8.753546E-1,4.039307E-1,-1.0441295E0,-1.4243164E0,-6.0719144E-1,-1.0164643E-1,-5.39296E-1,4.088033E-1,-1.4207891E0,-1.3557588E-1,3.1953737E-1,-5.539913E-1,-8.5363775E-2],"categories":[],"categories_nodes":[],"categories_segments":[],"categories_sizes":[],"default_left":[0,0,0,0,0,0,0,0,0,0,0,0,0,0,0,0,0,0,0],"id":44,"left_children":[1,3,5,-1,7,-1,-1,-1,9,11,13,-1,-1,15,17,-1,-1,-1,-1],"loss_changes":[3.967701E2,4.927926E0,4.765162E2,0E0,8.59375E0,0E0,0E0,0E0,2.9799318E-1,6.066828E-1,4.7138777E0,0E0,0E0,2.1760826E0,9.2614985E-1,0E0,0E0,0E0,0E0],"parents":[2147483647,0,0,1,1,2,2,4,4,8,8,9,9,10,10,13,13,14,14],"right_children":[2,4,6,-1,8,-1,-1,-1,10,12,14,-1,-1,16,18,-1,-1,-1,-1],"split_conditions":[8E0,1E0,9E0,-7.5202334E-1,2E0,6.4119143E0,-8.753546E-1,4.039307E-1,4E0,3E0,6E0,-1.0164643E-1,-5.39296E-1,5E0,7E0,-1.3557588E-1,3.1953737E-1,-5.539913E-1,-8.5363775E-2],"split_indices":[0,0,0,0,0,0,0,0,0,0,0,0,0,0,0,0,0,0,0],"split_type":[0,0,0,0,0,0,0,0,0,0,0,0,0,0,0,0,0,0,0],"sum_hessian":[1E1,8E0,2E0,1E0,7E0,1E0,1E0,1E0,6E0,2E0,4E0,1E0,1E0,2E0,2E0,1E0,1E0,1E0,1E0],"tree_param":{"num_deleted":"0","num_feature":"2","num_nodes":"19","size_leaf_vector":"1"}},{"base_weights":[2.1082323E0,-9.0944886E-1,1.0458531E1,-6.392212E-1,-4.904456E-1,5.450391E0,-7.440514E-1,3.4335938E-1,-8.875182E-1,-1.2106667E0,-5.161255E-1,-8.639832E-2,-4.584017E-1,3.4747314E-1,-1.2076823E0,-1.1523743E-1,2.7160037E-1,-4.7089234E-1,-7.25647E-2],"categories":[],"categories_nodes":[],"categories_segments":[],"categories_sizes":[],"default_left":[0,0,0,0,0,0,0,0,0,0,0,0,0,0,0,0,0,0,0],"id":45,"left_children":[1,3,5,-1,7,-1,-1,-1,9,11,13,-1,-1,15,17,-1,-1,-1,-1],"loss_changes":[2.8669547E2,3.5605035E0,3.4430997E2,0E0,6.209429E0,0E0,0E0,0E0,2.1524858E-1,4.3834305E-1,3.4057748E0,0E0,0E0,1.5721519E0,6.690707E-1,0E0,0E0,0E0,0E0],"parents":[2147483647,0,0,1,1,2,2,4,4,8,8,9,9,10,10,13,13,14,14],"right_children":[2,4,6,-1,8,-1,-1,-1,10,12,14,-1,-1,16,18,-1,-1,-1,-1],"split_conditions":[8E0,1E0,9E0,-6.392212E-1,2E0,5.450391E0,-7.440514E-1,3.4335938E-1,4E0,3E0,6E0,-8.639832E-2,-4.584017E-1,5E0,7E0,-1.1523743E-1,2.7160037E-1,-4.7089234E-1,-7.25647E-2],"split_indices":[0,0,0,0,0,0,0,0,0,0,0,0,0,0,0,0,0,0,0],"split_type":[0,0,0,0,0,0,0,0,0,0,0,0,0,0,0,0,0,0,0],"sum_hessian":[1E1,8E0,2E0,1E0,7E0,1E0,1E0,1E0,6E0,2E0,4E0,1E0,1E0,2E0,2E0,1E0,1E0,1E0,1E0],"tree_param":{"num_deleted":"0","num_feature":"2","num_nodes":"19","size_leaf_vector":"1"}},{"base_weights":[1.792107E0,-7.730281E-1,8.890143E0,-5.4333806E-1,-4.168749E-1,4.633008E0,-6.324434E-1,2.9187012E-1,-7.5439996E-1,-1.029068E0,-4.3871918E-1,-7.343903E-2,-3.8964158E-1,2.9534912E-1,-1.0265478E0,-9.795228E-2,2.3085938E-1,-4.0025827E-1,-6.1688233E-2],"categories":[],"categories_nodes":[],"categories_segments":[],"categories_sizes":[],"default_left":[0,0,0,0,0,0,0,0,0,0,0,0,0,0,0,0,0,0,0],"id":46,"left_children":[1,3,5,-1,7,-1,-1,-1,9,11,13,-1,-1,15,17,-1,-1,-1,-1],"loss_changes":[2.0715396E2,2.572486E0,2.4877931E2,0E0,4.486628E0,0E0,0E0,0E0,1.5548038E-1,3.1669807E-1,2.4607215E0,0E0,0E0,1.1358777E0,4.8331285E-1,0E0,0E0,0E0,0E0],"parents":[2147483647,0,0,1,1,2,2,4,4,8,8,9,9,10,10,13,13,14,14],"right_children":[2,4,6,-1,8,-1,-1,-1,10,12,14,-1,-1,16,18,-1,-1,-1,-1],"split_conditions":[8E0,1E0,9E0,-5.4333806E-1,2E0,4.633008E0,-6.324434E-1,2.9187012E-1,4E0,3E0,6E0,-7.343903E-2,-3.8964158E-1,5E0,7E0,-9.795228E-2,2.3085938E-1,-4.0025827E-1,-6.1688233E-2],"split_indices":[0,0,0,0,0,0,0,0,0,0,0,0,0,0,0,0,0,0,0],"split_type":[0,0,0,0,0,0,0,0,0,0,0,0,0,0,0,0,0,0,0],"sum_hessian":[1E1,8E0,2E0,1E0,7E0,1E0,1E0,1E0,6E0,2E0,4E0,1E0,1E0,2E0,2E0,1E0,1E0,1E0,1E0],"tree_param":{"num_deleted":"0","num_feature":"2","num_nodes":"19","size_leaf_vector":"1"}},{"base_weights":[1.5232953E0,-6.5709007E-1,7.5566864E0,-4.618378E-1,-3.5436153E-1,3.938086E0,-5.375771E-1,2.480713E-1,-6.41243E-1,-8.7471265E-1,-3.729126E-1,-6.2425233E-2,-3.3119547E-1,2.5105795E-1,-8.725789E-1,-8.325806E-2,1.9623414E-1,-3.4021914E-1,-5.2441407E-2],"categories":[],"categories_nodes":[],"categories_segments":[],"categories_sizes":[],"default_left":[0,0,0,0,0,0,0,0,0,0,0,0,0,0,0,0,0,0,0],"id":47,"left_children":[1,3,5,-1,7,-1,-1,-1,9,11,13,-1,-1,15,17,-1,-1,-1,-1],"loss_changes":[1.4967172E2,1.85854E0,1.7974522E2,0E0,3.2413125E0,0E0,0E0,0E0,1.1233759E-1,2.2879648E-1,1.7779533E0,0E0,0E0,8.206817E-1,3.491323E-1,0E0,0E0,0E0,0E0],"parents":[2147483647,0,0,1,1,2,2,4,4,8,8,9,9,10,10,13,13,14,14],"right_children":[2,4,6,-1,8,-1,-1,-1,10,12,14,-1,-1,16,18,-1,-1,-1,-1],"split_conditions":[8E0,1E0,9E0,-4.618378E-1,2E0,3.938086E0,-5.375771E-1,2.480713E-1,4E0,3E0,6E0,-6.2425233E-2,-3.3119547E-1,5E0,7E0,-8.325806E-2,1.9623414E-1,-3.4021914E-1,-5.2441407E-2],"split_indices":[0,0,0,0,0,0,0,0,0,0,0,0,0,0,0,0,0,0,0],"split_type":[0,0,0,0,0,0,0,0,0,0,0,0,0,0,0,0,0,0,0],"sum_hessian":[1E1,8E0,2E0,1E0,7E0,1E0,1E0,1E0,6E0,2E0,4E0,1E0,1E0,2E0,2E0,1E0,1E0,1E0,1E0],"tree_param":{"num_deleted":"0","num_feature":"2","num_nodes":"19","size_leaf_vector":"1"}},{"base_weights":[1.2948581E0,-5.585221E-1,6.4233794E0,-3.9255983E-1,-3.012042E-1,3.347461E0,-4.569403E-1,2.1086426E-1,-5.4505646E-1,-7.43501E-1,-3.1697845E-1,-5.3059388E-2,-2.8151608E-1,2.133789E-1,-7.4167633E-1,-7.077026E-2,1.6679078E-1,-2.8918648E-1,-4.456787E-2],"categories":[],"categories_nodes":[],"categories_segments":[],"categories_sizes":[],"default_left":[0,0,0,0,0,0,0,0,0,0,0,0,0,0,0,0,0,0,0],"id":48,"left_children":[1,3,5,-1,7,-1,-1,-1,9,11,13,-1,-1,15,17,-1,-1,-1,-1],"loss_changes":[1.0814369E2,1.3427849E0,1.2987146E2,0E0,2.341897E0,0E0,0E0,0E0,8.11522E-2,1.6532087E-1,1.2844664E0,0E0,0E0,5.9291035E-1,2.523067E-1,0E0,0E0,0E0,0E0],"parents":[2147483647,0,0,1,1,2,2,4,4,8,8,9,9,10,10,13,13,14,14],"right_children":[2,4,6,-1,8,-1,-1,-1,10,12,14,-1,-1,16,18,-1,-1,-1,-1],"split_conditions":[8E0,1E0,9E0,-3.9255983E-1,2E0,3.347461E0,-4.569403E-1,2.1086426E-1,4E0,3E0,6E0,-5.3059388E-2,-2.8151608E-1,5E0,7E0,-7.077026E-2,1.6679078E-1,-2.8918648E-1,-4.456787E-2],"split_indices":[0,0,0,0,0,0,0,0,0,0,0,0,0,0,0,0,0,0,0],"split_type":[0,0,0,0,0,0,0,0,0,0,0,0,0,0,0,0,0,0,0],"sum_hessian":[1E1,8E0,2E0,1E0,7E0,1E0,1E0,1E0,6E0,2E0,4E0,1E0,1E0,2E0,2E0,1E0,1E0,1E0,1E0],"tree_param":{"num_deleted":"0","num_feature":"2","num_nodes":"19","size_leaf_vector":"1"}},{"base_weights":[1.1006103E0,-4.7474542E-1,5.459807E0,-3.3367312E-1,-2.560277E-1,2.8453126E0,-3.8839933E-1,1.7922364E-1,-4.6329227E-1,-6.31972E-1,-2.6942596E-1,-4.509888E-2,-2.3928852E-1,1.813863E-1,-6.3042957E-1,-6.0154725E-2,1.4177857E-1,-2.458088E-1,-3.7884522E-2],"categories":[],"categories_nodes":[],"categories_segments":[],"categories_sizes":[],"default_left":[0,0,0,0,0,0,0,0,0,0,0,0,0,0,0,0,0,0,0],"id":49,"left_children":[1,3,5,-1,7,-1,-1,-1,9,11,13,-1,-1,15,17,-1,-1,-1,-1],"loss_changes":[7.813216E1,9.7012424E-1,9.3830574E1,0E0,1.691879E0,0E0,0E0,0E0,5.8639526E-2,1.19454384E-1,9.280757E-1,0E0,0E0,4.2840257E-1,1.8228006E-1,0E0,0E0,0E0,0E0],"parents":[2147483647,0,0,1,1,2,2,4,4,8,8,9,9,10,10,13,13,14,14],"right_children":[2,4,6,-1,8,-1,-1,-1,10,12,14,-1,-1,16,18,-1,-1,-1,-1],"split_conditions":[8E0,1E0,9E0,-3.3367312E-1,2E0,2.8453126E0,-3.8839933E-1,1.7922364E-1,4E0,3E0,6E0,-4.509888E-2,-2.3928852E-1,5E0,7E0,-6.0154725E-2,1.4177857E-1,-2.458088E-1,-3.7884522E-2],"split_indices":[0,0,0,0,0,0,0,0,0,0,0,0,0,0,0,0,0,0,0],"split_type":[0,0,0,0,0,0,0,0,0,0,0,0,0,0,0,0,0,0,0],"sum_hessian":[1E1,8E0,2E0,1E0,7E0,1E0,1E0,1E0,6E0,2E0,4E0,1E0,1E0,2E0,2E0,1E0,1E0,1E0,1E0],"tree_param":{"num_deleted":"0","num_feature":"2","num_nodes":"19","size_leaf_vector":"1"}}]},"name":"gbtree"},"learner_model_param":{"base_score":"[7.4915E3]","boost_from_average":"1","num_class":"0","num_feature":"2","num_target":"1"},"objective":{"name":"reg:squarederror","reg_loss_param":{"scale_pos_weight":"1"}}},"version":[3,1,2]}